digraph Tree {
node [shape=box, style="filled", color="black"] ;
0 [label="mean concave points <= 0.051\nentropy = 0.953\nsamples = 426\nvalue = [159, 267]\nclass = benign", fillcolor="#afd7f4"] ;
1 [label="mean area <= 694.5\nentropy = 0.331\nsamples = 263\nvalue = [16, 247]\nclass = benign", fillcolor="#46a3e7"] ;
0 -> 1 [labeldistance=2.5, labelangle=45, headlabel="True"] ;
2 [label="mean concave points <= 0.034\nentropy = 0.165\nsamples = 247\nvalue = [6, 241]\nclass = benign", fillcolor="#3e9fe6"] ;
1 -> 2 ;
3 [label="mean texture <= 22.455\nentropy = 0.044\nsamples = 210\nvalue = [1, 209]\nclass = benign", fillcolor="#3a9de5"] ;
2 -> 3 ;
4 [label="entropy = 0.0\nsamples = 186\nvalue = [0, 186]\nclass = benign", fillcolor="#399de5"] ;
3 -> 4 ;
5 [label="entropy = 0.25\nsamples = 24\nvalue = [1, 23]\nclass = benign", fillcolor="#42a1e6"] ;
3 -> 5 ;
6 [label="mean compactness <= 0.065\nentropy = 0.571\nsamples = 37\nvalue = [5, 32]\nclass = benign", fillcolor="#58ace9"] ;
2 -> 6 ;
7 [label="entropy = 0.0\nsamples = 2\nvalue = [2, 0]\nclass = malignant", fillcolor="#e58139"] ;
6 -> 7 ;
8 [label="entropy = 0.422\nsamples = 35\nvalue = [3, 32]\nclass = benign", fillcolor="#4ca6e7"] ;
6 -> 8 ;
9 [label="mean texture <= 19.83\nentropy = 0.954\nsamples = 16\nvalue = [10, 6]\nclass = malignant", fillcolor="#f5cdb0"] ;
1 -> 9 ;
10 [label="mean perimeter <= 102.15\nentropy = 0.811\nsamples = 8\nvalue = [2, 6]\nclass = benign", fillcolor="#7bbeee"] ;
9 -> 10 ;
11 [label="entropy = 0.918\nsamples = 3\nvalue = [2, 1]\nclass = malignant", fillcolor="#f2c09c"] ;
10 -> 11 ;
12 [label="entropy = 0.0\nsamples = 5\nvalue = [0, 5]\nclass = benign", fillcolor="#399de5"] ;
10 -> 12 ;
13 [label="entropy = 0.0\nsamples = 8\nvalue = [8, 0]\nclass = malignant", fillcolor="#e58139"] ;
9 -> 13 ;
14 [label="mean perimeter <= 102.05\nentropy = 0.537\nsamples = 163\nvalue = [143, 20]\nclass = malignant", fillcolor="#e99355"] ;
0 -> 14 [labeldistance=2.5, labelangle=-45, headlabel="False"] ;
15 [label="mean texture <= 20.79\nentropy = 0.936\nsamples = 54\nvalue = [35, 19]\nclass = malignant", fillcolor="#f3c5a4"] ;
14 -> 15 ;
16 [label="mean texture <= 14.84\nentropy = 0.983\nsamples = 33\nvalue = [14, 19]\nclass = benign", fillcolor="#cbe5f8"] ;
15 -> 16 ;
17 [label="entropy = 0.0\nsamples = 7\nvalue = [0, 7]\nclass = benign", fillcolor="#399de5"] ;
16 -> 17 ;
18 [label="entropy = 0.996\nsamples = 26\nvalue = [14, 12]\nclass = malignant", fillcolor="#fbede3"] ;
16 -> 18 ;
19 [label="entropy = 0.0\nsamples = 21\nvalue = [21, 0]\nclass = malignant", fillcolor="#e58139"] ;
15 -> 19 ;
20 [label="mean concavity <= 0.07\nentropy = 0.075\nsamples = 109\nvalue = [108, 1]\nclass = malignant", fillcolor="#e5823b"] ;
14 -> 20 ;
21 [label="entropy = 0.0\nsamples = 1\nvalue = [0, 1]\nclass = benign", fillcolor="#399de5"] ;
20 -> 21 ;
22 [label="entropy = 0.0\nsamples = 108\nvalue = [108, 0]\nclass = malignant", fillcolor="#e58139"] ;
20 -> 22 ;
}