digraph Tree {
node [shape=box, style="filled", color="black"] ;
0 [label="mean concave points <= 0.051\ngini = 0.468\nsamples = 426\nvalue = [159, 267]\nclass = benign", fillcolor="#afd7f4"] ;
1 [label="mean area <= 694.5\ngini = 0.114\nsamples = 263\nvalue = [16, 247]\nclass = benign", fillcolor="#46a3e7"] ;
0 -> 1 [labeldistance=2.5, labelangle=45, headlabel="True"] ;
2 [label="mean concave points <= 0.049\ngini = 0.047\nsamples = 247\nvalue = [6, 241]\nclass = benign", fillcolor="#3e9fe6"] ;
1 -> 2 ;
3 [label="mean concave points <= 0.034\ngini = 0.033\nsamples = 242\nvalue = [4, 238]\nclass = benign", fillcolor="#3c9fe5"] ;
2 -> 3 ;
4 [label="gini = 0.009\nsamples = 210\nvalue = [1, 209]\nclass = benign", fillcolor="#3a9de5"] ;
3 -> 4 ;
5 [label="gini = 0.17\nsamples = 32\nvalue = [3, 29]\nclass = benign", fillcolor="#4da7e8"] ;
3 -> 5 ;
6 [label="mean symmetry <= 0.165\ngini = 0.48\nsamples = 5\nvalue = [2, 3]\nclass = benign", fillcolor="#bddef6"] ;
2 -> 6 ;
7 [label="gini = 0.0\nsamples = 2\nvalue = [0, 2]\nclass = benign", fillcolor="#399de5"] ;
6 -> 7 ;
8 [label="gini = 0.444\nsamples = 3\nvalue = [2, 1]\nclass = malignant", fillcolor="#f2c09c"] ;
6 -> 8 ;
9 [label="mean texture <= 19.83\ngini = 0.469\nsamples = 16\nvalue = [10, 6]\nclass = malignant", fillcolor="#f5cdb0"] ;
1 -> 9 ;
10 [label="mean area <= 779.3\ngini = 0.375\nsamples = 8\nvalue = [2, 6]\nclass = benign", fillcolor="#7bbeee"] ;
9 -> 10 ;
11 [label="gini = 0.444\nsamples = 3\nvalue = [2, 1]\nclass = malignant", fillcolor="#f2c09c"] ;
10 -> 11 ;
12 [label="gini = 0.0\nsamples = 5\nvalue = [0, 5]\nclass = benign", fillcolor="#399de5"] ;
10 -> 12 ;
13 [label="gini = 0.0\nsamples = 8\nvalue = [8, 0]\nclass = malignant", fillcolor="#e58139"] ;
9 -> 13 ;
14 [label="mean perimeter <= 102.05\ngini = 0.215\nsamples = 163\nvalue = [143, 20]\nclass = malignant", fillcolor="#e99355"] ;
0 -> 14 [labeldistance=2.5, labelangle=-45, headlabel="False"] ;
15 [label="mean texture <= 18.625\ngini = 0.456\nsamples = 54\nvalue = [35, 19]\nclass = malignant", fillcolor="#f3c5a4"] ;
14 -> 15 ;
16 [label="mean concavity <= 0.151\ngini = 0.346\nsamples = 18\nvalue = [4, 14]\nclass = benign", fillcolor="#72b9ec"] ;
15 -> 16 ;
17 [label="gini = 0.124\nsamples = 15\nvalue = [1, 14]\nclass = benign", fillcolor="#47a4e7"] ;
16 -> 17 ;
18 [label="gini = 0.0\nsamples = 3\nvalue = [3, 0]\nclass = malignant", fillcolor="#e58139"] ;
16 -> 18 ;
19 [label="mean smoothness <= 0.091\ngini = 0.239\nsamples = 36\nvalue = [31, 5]\nclass = malignant", fillcolor="#e99559"] ;
15 -> 19 ;
20 [label="gini = 0.375\nsamples = 4\nvalue = [1, 3]\nclass = benign", fillcolor="#7bbeee"] ;
19 -> 20 ;
21 [label="gini = 0.117\nsamples = 32\nvalue = [30, 2]\nclass = malignant", fillcolor="#e78946"] ;
19 -> 21 ;
22 [label="mean concavity <= 0.07\ngini = 0.018\nsamples = 109\nvalue = [108, 1]\nclass = malignant", fillcolor="#e5823b"] ;
14 -> 22 ;
23 [label="gini = 0.0\nsamples = 1\nvalue = [0, 1]\nclass = benign", fillcolor="#399de5"] ;
22 -> 23 ;
24 [label="gini = 0.0\nsamples = 108\nvalue = [108, 0]\nclass = malignant", fillcolor="#e58139"] ;
22 -> 24 ;
}